#ifndef FALL_DETECTOR_MODEL_H
#define FALL_DETECTOR_MODEL_H

#define FD_FEATURE_DIM 96
#define FD_TIME_STEPS 150
#define FD_STEP 75
#define FD_USE_GYRO 1

static const float FD_BIAS = -1.88246161e-01f;
static const float FD_THRESHOLD = 8.89999986e-01f;

static const float FD_WEIGHTS[96] = {9.39776003e-02f, -3.36024836e-02f, 4.69431207e-02f, 1.05252147e-01f, -6.34945184e-03f, 6.43938109e-02f, 1.02080248e-01f, 5.95223904e-02f, 2.16857508e-01f, 1.88155040e-01f, -3.82720195e-02f, 1.81303080e-02f, -2.68375069e-01f, -2.25485396e-02f, -2.43266299e-01f, -1.95508897e-01f, 4.38466780e-02f, -2.39575207e-01f, -1.87103972e-01f, -2.54835784e-01f, -2.91491538e-01f, -2.99743235e-01f, -3.17750275e-02f, -1.61950681e-02f, -3.49939242e-02f, 5.38928770e-02f, -5.25299385e-02f, -1.18085576e-04f, 4.44533415e-02f, -1.32527892e-02f, 5.83339203e-03f, -1.25968782e-02f, 2.99632490e-01f, 3.00026715e-01f, -5.37055433e-02f, -5.62106026e-03f, 1.28268283e-02f, -4.03984375e-02f, -3.58804949e-02f, 3.76117565e-02f, 3.98607962e-02f, 1.72878709e-02f, 4.87751812e-02f, -2.87462771e-02f, -1.09469527e-02f, 1.37642603e-02f, 1.29435407e-02f, 6.89298064e-02f, 2.19378457e-03f, -3.16235535e-02f, -5.77141158e-03f, 2.57335659e-02f, -1.58141199e-02f, -3.67010124e-02f, 5.47522083e-02f, -9.82102603e-02f, -6.03319816e-02f, -3.43712803e-04f, -3.43094729e-02f, 5.48417605e-02f, 4.09377087e-03f, -1.57122090e-02f, -2.14761607e-02f, 4.48152684e-02f, 4.68135364e-02f, 2.71168519e-02f, 4.67735231e-02f, -1.80345271e-02f, 6.20329054e-03f, 6.10947795e-03f, -3.15616988e-02f, 3.36668193e-02f, -5.65975159e-02f, -5.72350621e-02f, 1.08636236e-02f, 3.47018987e-02f, 2.97465385e-03f, 3.79350334e-02f, 1.24194495e-01f, -1.35399327e-01f, -2.90837232e-02f, -8.99569467e-02f, -6.54144362e-02f, -2.77726483e-02f, -5.19844778e-02f, 6.47548586e-02f, -3.59657928e-02f, 6.22045062e-02f, 7.63778463e-02f, -3.77039984e-02f, -4.84051220e-02f, -3.47744524e-02f, -3.65397148e-02f, -3.81608843e-03f, -4.62565348e-02f, 2.30197459e-02f};
static const float FD_MEAN[96] = {-2.94483304e-01f, 1.67795300e+00f, -4.79294729e+00f, 3.83066463e+00f, 8.62362671e+00f, -2.61805862e-01f, -1.26240969e+00f, 7.11001635e-01f, 3.36588502e+00f, 3.80807662e+00f, 4.15684581e-01f, 6.40662551e-01f, 6.46004391e+00f, 2.26018000e+00f, 1.84624052e+00f, 1.14254351e+01f, 9.57918262e+00f, 6.30689573e+00f, 4.87219524e+00f, 8.14537144e+00f, 7.11623430e+00f, 7.63493681e+00f, 4.54612911e-01f, 7.07943380e-01f, 1.61477661e+00f, 1.66049635e+00f, -2.27731633e+00f, 6.94997597e+00f, 9.22727680e+00f, 1.48711610e+00f, 6.57200813e-01f, 2.38481355e+00f, 3.51505494e+00f, 3.97176623e+00f, 4.68635768e-01f, 7.64063597e-01f, -7.14033097e-02f, 7.10115016e-01f, -1.65135443e+00f, 1.44222379e+00f, 3.09357953e+00f, -3.27330790e-02f, -5.30789912e-01f, 4.13017511e-01f, 6.50519848e-01f, 8.16395283e-01f, 7.15798065e-02f, 1.26393914e-01f, 1.64506473e-02f, 7.05804586e-01f, -1.76817942e+00f, 1.79349887e+00f, 3.56168318e+00f, 9.50363651e-03f, -4.03056711e-01f, 4.21635419e-01f, 5.70736170e-01f, 7.52316892e-01f, 1.10521570e-01f, 1.99660227e-01f, -2.05667764e-02f, 5.03324449e-01f, -1.18684185e+00f, 1.14568555e+00f, 2.33252954e+00f, 3.10569187e-03f, -3.44506204e-01f, 3.05022806e-01f, 4.35852498e-01f, 5.57992697e-01f, 5.43630309e-02f, 1.01574510e-01f, 1.01889381e+01f, 2.13974738e+00f, 6.57256651e+00f, 1.62098675e+01f, 9.63728523e+00f, 9.81667042e+00f, 8.68523598e+00f, 1.15556259e+01f, 1.01889381e+01f, 1.06416578e+01f, 4.85513836e-01f, 7.65145123e-01f, 1.11485803e+00f, 6.05115473e-01f, 2.19260737e-01f, 3.00653911e+00f, 2.78728151e+00f, 1.01039374e+00f, 6.81429267e-01f, 1.44694090e+00f, 1.11485803e+00f, 1.29110610e+00f, 8.61164182e-02f, 1.50504053e-01f};
static const float FD_STD[96] = {3.73694468e+00f, 1.76141453e+00f, 6.57771540e+00f, 5.79080009e+00f, 8.89624023e+00f, 3.69523501e+00f, 3.91011739e+00f, 3.80395174e+00f, 2.24438405e+00f, 2.33840871e+00f, 4.66991514e-01f, 7.12069452e-01f, 4.19079733e+00f, 2.59138060e+00f, 6.33409023e+00f, 6.98471117e+00f, 9.71877289e+00f, 4.28822327e+00f, 4.34528494e+00f, 5.24189949e+00f, 3.34557748e+00f, 3.58140349e+00f, 5.06623328e-01f, 7.62535274e-01f, 3.88758755e+00f, 1.71213627e+00f, 6.12678289e+00f, 6.32398462e+00f, 9.39419365e+00f, 3.96342564e+00f, 4.15859985e+00f, 3.93870211e+00f, 2.81263089e+00f, 2.76306677e+00f, 5.47065854e-01f, 8.99973094e-01f, 4.98213470e-01f, 6.19197011e-01f, 1.67566156e+00f, 1.63180220e+00f, 2.90598559e+00f, 5.42724431e-01f, 7.59641349e-01f, 6.50478065e-01f, 5.83780229e-01f, 6.88825428e-01f, 7.63719678e-02f, 1.78832352e-01f, 3.03417116e-01f, 7.09124565e-01f, 2.10741854e+00f, 2.06790066e+00f, 3.86411619e+00f, 3.22844595e-01f, 5.40480077e-01f, 5.38605094e-01f, 5.62350392e-01f, 7.26202786e-01f, 1.40746549e-01f, 3.30468684e-01f, 3.07915717e-01f, 5.04430830e-01f, 1.46533275e+00f, 1.48518324e+00f, 2.61978340e+00f, 3.30256373e-01f, 5.05568862e-01f, 4.36894894e-01f, 4.36786026e-01f, 5.40060937e-01f, 6.07200079e-02f, 1.74335554e-01f, 6.64417863e-01f, 2.37972236e+00f, 3.21621227e+00f, 6.45170069e+00f, 9.46827698e+00f, 1.10047603e+00f, 1.79387450e+00f, 2.53950500e+00f, 6.64417863e-01f, 1.11902905e+00f, 5.38943470e-01f, 8.18717301e-01f, 9.74489093e-01f, 5.27871490e-01f, 2.59871155e-01f, 2.91987967e+00f, 2.81290841e+00f, 9.36897337e-01f, 6.57160342e-01f, 1.29485047e+00f, 9.74489093e-01f, 1.08185351e+00f, 9.66480225e-02f, 1.89735457e-01f};

#endif
